digraph Tree {
node [shape=box] ;
0 [label="pickup_longitude <= -73.8861\nmse = 208481.8611\nsamples = 3056802\nvalue = 679.3199"] ;
1 [label="dropoff_longitude <= -73.9099\nmse = 165820.9558\nsamples = 2964384\nvalue = 649.0761"] ;
0 -> 1 [labeldistance=2.5, labelangle=45, headlabel="True"] ;
2 [label="dropoff_latitude <= 40.7228\nmse = 140502.5516\nsamples = 2892958\nvalue = 627.6443"] ;
1 -> 2 ;
3 [label="pickup_latitude <= 40.7389\nmse = 243532.2541\nsamples = 347316\nvalue = 878.6474"] ;
2 -> 3 ;
4 [label="dropoff_latitude <= 40.7015\nmse = 157161.6545\nsamples = 204163\nvalue = 679.4091"] ;
3 -> 4 ;
5 [label="mse = 230264.6705\nsamples = 57707\nvalue = 898.3141"] ;
4 -> 5 ;
6 [label="mse = 102036.3745\nsamples = 146456\nvalue = 593.1555"] ;
4 -> 6 ;
7 [label="dropoff_latitude <= 40.7014\nmse = 229357.1352\nsamples = 143153\nvalue = 1162.7987"] ;
3 -> 7 ;
8 [label="mse = 299954.8104\nsamples = 26027\nvalue = 1624.407"] ;
7 -> 8 ;
9 [label="mse = 155797.8186\nsamples = 117126\nvalue = 1060.223"] ;
7 -> 9 ;
10 [label="pickup_latitude <= 40.7209\nmse = 116677.0805\nsamples = 2545642\nvalue = 593.3986"] ;
2 -> 10 ;
11 [label="dropoff_latitude <= 40.7493\nmse = 168612.2591\nsamples = 149317\nvalue = 855.65"] ;
10 -> 11 ;
12 [label="mse = 110110.2922\nsamples = 84144\nvalue = 677.3884"] ;
11 -> 12 ;
13 [label="mse = 150146.6875\nsamples = 65173\nvalue = 1085.8012"] ;
11 -> 13 ;
14 [label="dropoff_longitude <= -73.9444\nmse = 108888.4465\nsamples = 2396325\nvalue = 577.0575"] ;
10 -> 14 ;
15 [label="mse = 103764.9375\nsamples = 2317301\nvalue = 568.4597"] ;
14 -> 15 ;
16 [label="mse = 193397.7587\nsamples = 79024\nvalue = 829.1782"] ;
14 -> 16 ;
17 [label="dropoff_latitude <= 40.6817\nmse = 419174.9446\nsamples = 71426\nvalue = 1517.1258"] ;
1 -> 17 ;
18 [label="pickup_datetime_hour <= 11.5\nmse = 438592.9364\nsamples = 12291\nvalue = 2301.6147"] ;
17 -> 18 ;
19 [label="pickup_datetime_hour <= 6.5\nmse = 240372.9589\nsamples = 4422\nvalue = 1964.445"] ;
18 -> 19 ;
20 [label="mse = 175151.2661\nsamples = 1676\nvalue = 1744.3156"] ;
19 -> 20 ;
21 [label="mse = 232554.108\nsamples = 2746\nvalue = 2098.7993"] ;
19 -> 21 ;
22 [label="pickup_datetime_dayofweek <= 4.5\nmse = 450198.3859\nsamples = 7869\nvalue = 2491.0878"] ;
18 -> 22 ;
23 [label="mse = 449740.6933\nsamples = 5751\nvalue = 2649.5752"] ;
22 -> 23 ;
24 [label="mse = 198044.7601\nsamples = 2118\nvalue = 2060.7474"] ;
22 -> 24 ;
25 [label="pickup_longitude <= -73.9518\nmse = 260639.1633\nsamples = 59135\nvalue = 1354.0725"] ;
17 -> 25 ;
26 [label="pickup_datetime_hour <= 7.5\nmse = 213720.4209\nsamples = 50891\nvalue = 1441.8935"] ;
25 -> 26 ;
27 [label="mse = 140160.9905\nsamples = 16067\nvalue = 1268.6808"] ;
26 -> 27 ;
28 [label="mse = 227429.9009\nsamples = 34824\nvalue = 1521.8099"] ;
26 -> 28 ;
29 [label="pickup_longitude <= -73.9319\nmse = 208760.9879\nsamples = 8244\nvalue = 811.9453"] ;
25 -> 29 ;
30 [label="mse = 178926.5391\nsamples = 3496\nvalue = 1059.6879"] ;
29 -> 30 ;
31 [label="mse = 152260.95\nsamples = 4748\nvalue = 629.5299"] ;
29 -> 31 ;
32 [label="pickup_latitude <= 40.687\nmse = 606444.787\nsamples = 92418\nvalue = 1649.4135"] ;
0 -> 32 [labeldistance=2.5, labelangle=-45, headlabel="False"] ;
33 [label="dropoff_longitude <= -73.8979\nmse = 723306.3051\nsamples = 32139\nvalue = 2117.2139"] ;
32 -> 33 ;
34 [label="pickup_datetime_hour <= 18.5\nmse = 550976.9549\nsamples = 26513\nvalue = 2314.9234"] ;
33 -> 34 ;
35 [label="pickup_datetime_hour <= 14.5\nmse = 593044.8831\nsamples = 18504\nvalue = 2501.1415"] ;
34 -> 35 ;
36 [label="mse = 434103.556\nsamples = 10098\nvalue = 2251.5153"] ;
35 -> 36 ;
37 [label="mse = 619199.3811\nsamples = 8406\nvalue = 2801.0137"] ;
35 -> 37 ;
38 [label="pickup_datetime_hour <= 19.5\nmse = 188560.0172\nsamples = 8009\nvalue = 1884.6851"] ;
34 -> 38 ;
39 [label="mse = 310833.4865\nsamples = 1690\nvalue = 2118.8302"] ;
38 -> 39 ;
40 [label="mse = 137274.3349\nsamples = 6319\nvalue = 1822.0636"] ;
38 -> 40 ;
41 [label="dropoff_latitude <= 40.7061\nmse = 483104.7398\nsamples = 5626\nvalue = 1185.4909"] ;
33 -> 41 ;
42 [label="dropoff_longitude <= -73.8327\nmse = 446541.7108\nsamples = 2672\nvalue = 855.5636"] ;
41 -> 42 ;
43 [label="mse = 195111.4316\nsamples = 575\nvalue = 1083.567"] ;
42 -> 43 ;
44 [label="mse = 497321.111\nsamples = 2097\nvalue = 793.0448"] ;
42 -> 44 ;
45 [label="dropoff_latitude <= 40.8165\nmse = 328655.5349\nsamples = 2954\nvalue = 1483.9221"] ;
41 -> 45 ;
46 [label="mse = 284576.1507\nsamples = 2766\nvalue = 1436.6211"] ;
45 -> 46 ;
47 [label="mse = 459949.9778\nsamples = 188\nvalue = 2179.8511"] ;
45 -> 47 ;
48 [label="dropoff_longitude <= -73.9521\nmse = 365250.9931\nsamples = 60279\nvalue = 1399.9961"] ;
32 -> 48 ;
49 [label="pickup_datetime_hour <= 18.5\nmse = 293702.1679\nsamples = 46112\nvalue = 1547.2885"] ;
48 -> 49 ;
50 [label="pickup_datetime_dayofweek <= 4.5\nmse = 331065.116\nsamples = 32812\nvalue = 1654.8985"] ;
49 -> 50 ;
51 [label="mse = 354315.4128\nsamples = 24865\nvalue = 1719.0233"] ;
50 -> 51 ;
52 [label="mse = 205197.3017\nsamples = 7947\nvalue = 1454.2615"] ;
50 -> 52 ;
53 [label="dropoff_longitude <= -73.9775\nmse = 102476.486\nsamples = 13300\nvalue = 1281.8072"] ;
49 -> 53 ;
54 [label="mse = 102481.36\nsamples = 8431\nvalue = 1348.4134"] ;
53 -> 54 ;
55 [label="mse = 81484.4617\nsamples = 4869\nvalue = 1166.4742"] ;
53 -> 55 ;
56 [label="dropoff_longitude <= -73.9292\nmse = 297675.5405\nsamples = 14167\nvalue = 920.5757"] ;
48 -> 56 ;
57 [label="dropoff_latitude <= 40.7009\nmse = 316644.9671\nsamples = 4371\nvalue = 1192.8932"] ;
56 -> 57 ;
58 [label="mse = 298489.6929\nsamples = 386\nvalue = 1751.9041"] ;
57 -> 58 ;
59 [label="mse = 285202.4708\nsamples = 3985\nvalue = 1138.7455"] ;
57 -> 59 ;
60 [label="dropoff_latitude <= 40.7064\nmse = 241358.0106\nsamples = 9796\nvalue = 799.067"] ;
56 -> 60 ;
61 [label="mse = 290567.5841\nsamples = 1521\nvalue = 1257.3445"] ;
60 -> 61 ;
62 [label="mse = 186614.7591\nsamples = 8275\nvalue = 714.8325"] ;
60 -> 62 ;
}